Language model created by QuickLM on Wed Aug 10 08:15:18 EDT 2022
Copyright (c) 1996-2010 Carnegie Mellon University and Alexander I. Rudnicky

The model is in standard ARPA format, designed by Doug Paul while he was at MITRE.

The code that was used to produce this language model is available in Open Source.
Please visit http://www.speech.cs.cmu.edu/tools/ for more information

The (fixed) discount mass is 0.5. The backoffs are computed using the ratio method.
This model based on a corpus of 12 sentences and 22 words

\data\
ngram 1=22
ngram 2=35
ngram 3=31

\1-grams:
-0.9853 </s> -0.3010
-0.9853 <s> -0.2366
-2.0645 AGE -0.2536
-1.7634 ARE -0.2935
-2.0645 DIBYAPRAKASH -0.2536
-2.0645 FATHER -0.2536
-1.7634 FROM -0.2536
-2.0645 GEEKYANTS -0.2536
-1.5873 GEEKYBOT -0.2536
-2.0645 HELLO -0.2897
-2.0645 HEY -0.2897
-2.0645 HI -0.2897
-2.0645 HOW -0.2935
-1.4624 IS -0.2780
-2.0645 MR -0.2973
-1.7634 NAME -0.2536
-1.7634 WHAT -0.2858
-2.0645 WHAT'S -0.2858
-2.0645 WHERE -0.2935
-1.7634 WHO -0.2858
-1.7634 YOU -0.2452
-1.4624 YOUR -0.2858

\2-grams:
-1.3802 <s> FROM 0.0000
-1.3802 <s> HELLO 0.0000
-1.3802 <s> HEY 0.0000
-1.3802 <s> HI 0.0000
-1.3802 <s> HOW 0.0000
-1.0792 <s> WHAT 0.0000
-1.3802 <s> WHAT'S 0.0000
-1.3802 <s> WHERE 0.0000
-1.0792 <s> WHO 0.0000
-1.3802 <s> YOUR -0.1761
-0.3010 AGE </s> -0.3010
-0.3010 ARE YOU 0.0000
-0.3010 DIBYAPRAKASH </s> -0.3010
-0.3010 FATHER </s> -0.3010
-0.3010 FROM </s> -0.3010
-0.3010 GEEKYANTS </s> -0.3010
-0.3010 GEEKYBOT </s> -0.3010
-0.3010 HELLO GEEKYBOT 0.0000
-0.3010 HEY GEEKYBOT 0.0000
-0.3010 HI GEEKYBOT 0.0000
-0.3010 HOW ARE 0.0000
-0.9031 IS GEEKYANTS 0.0000
-0.9031 IS MR 0.0000
-0.6021 IS YOUR -0.1761
-0.3010 MR DIBYAPRAKASH 0.0000
-0.3010 NAME </s> -0.3010
-0.3010 WHAT IS -0.0969
-0.3010 WHAT'S YOUR -0.1761
-0.3010 WHERE ARE 0.0000
-0.3010 WHO IS -0.0969
-0.6021 YOU </s> -0.3010
-0.6021 YOU FROM 0.0000
-0.9031 YOUR AGE 0.0000
-0.9031 YOUR FATHER 0.0000
-0.6021 YOUR NAME 0.0000

\3-grams:
-0.3010 <s> FROM </s>
-0.3010 <s> HELLO GEEKYBOT
-0.3010 <s> HEY GEEKYBOT
-0.3010 <s> HI GEEKYBOT
-0.3010 <s> HOW ARE
-0.3010 <s> WHAT IS
-0.3010 <s> WHAT'S YOUR
-0.3010 <s> WHERE ARE
-0.3010 <s> WHO IS
-0.3010 <s> YOUR NAME
-0.6021 ARE YOU </s>
-0.6021 ARE YOU FROM
-0.3010 HELLO GEEKYBOT </s>
-0.3010 HEY GEEKYBOT </s>
-0.3010 HI GEEKYBOT </s>
-0.3010 HOW ARE YOU
-0.3010 IS GEEKYANTS </s>
-0.3010 IS MR DIBYAPRAKASH
-0.6021 IS YOUR AGE
-0.6021 IS YOUR FATHER
-0.3010 MR DIBYAPRAKASH </s>
-0.6021 WHAT IS GEEKYANTS
-0.6021 WHAT IS YOUR
-0.3010 WHAT'S YOUR NAME
-0.3010 WHERE ARE YOU
-0.6021 WHO IS MR
-0.6021 WHO IS YOUR
-0.3010 YOU FROM </s>
-0.3010 YOUR AGE </s>
-0.3010 YOUR FATHER </s>
-0.3010 YOUR NAME </s>

\end\
