Language model created by QuickLM on Tue Aug  9 02:48:15 EDT 2022
Copyright (c) 1996-2010 Carnegie Mellon University and Alexander I. Rudnicky

The model is in standard ARPA format, designed by Doug Paul while he was at MITRE.

The code that was used to produce this language model is available in Open Source.
Please visit http://www.speech.cs.cmu.edu/tools/ for more information

The (fixed) discount mass is 0.5. The backoffs are computed using the ratio method.
This model based on a corpus of 5 sentences and 9 words

\data\
ngram 1=9
ngram 2=12
ngram 3=10

\1-grams:
-0.9031 </s> -0.3010
-0.9031 <s> -0.2430
-1.3010 CHROME -0.2430
-1.6021 CLOSE -0.2788
-1.1249 GEEKYBOT -0.2430
-1.6021 HELLO -0.2672
-1.6021 HEY -0.2672
-1.6021 HI -0.2672
-1.6021 OPEN -0.2788

\2-grams:
-1.0000 <s> CLOSE 0.0000
-1.0000 <s> HELLO 0.0000
-1.0000 <s> HEY 0.0000
-1.0000 <s> HI 0.0000
-1.0000 <s> OPEN 0.0000
-0.3010 CHROME </s> -0.3010
-0.3010 CLOSE CHROME 0.0000
-0.3010 GEEKYBOT </s> -0.3010
-0.3010 HELLO GEEKYBOT 0.0000
-0.3010 HEY GEEKYBOT 0.0000
-0.3010 HI GEEKYBOT 0.0000
-0.3010 OPEN CHROME 0.0000

\3-grams:
-0.3010 <s> CLOSE CHROME
-0.3010 <s> HELLO GEEKYBOT
-0.3010 <s> HEY GEEKYBOT
-0.3010 <s> HI GEEKYBOT
-0.3010 <s> OPEN CHROME
-0.3010 CLOSE CHROME </s>
-0.3010 HELLO GEEKYBOT </s>
-0.3010 HEY GEEKYBOT </s>
-0.3010 HI GEEKYBOT </s>
-0.3010 OPEN CHROME </s>

\end\
